{"w1":[[-0.26932531291400885,0.19605759420584448,-0.11544459599365729,0.10906305599248117,-0.00847630897936901,0.6190175584178338],[0.017035978139856224,-0.2558015629239011,0.28294949498587163,-0.28144786630079854,0.24914717568367017,-0.19188457801096076],[0.12068227932160022,0.2940212323428156,0.1805446891882784,0.3858264136764652,0.006212420836956749,0.3451052023570305],[0.23100466233257289,-0.11932360195798007,0.22633442493748387,0.13677054149411572,0.271513969658752,0.17165658047344903],[-0.38551066298026454,-0.13388474316748314,-0.0095479871330037,-0.1742284720320848,0.3380781742934623,-0.10453765403446476],[0.2399729257108824,0.2058840807885522,-0.005228646625828572,-0.12475281487970506,0.19569366869424784,0.26179602161985],[-0.15135551990249438,0.13296534149171754,0.062403121409450264,-0.12217042272071219,0.01473745536104112,-0.044694824544721776],[0.05781073146218743,0.34322363598544875,0.015250506833382436,0.14227478519126793,0.11602615815087218,0.014523213494803601],[0.26624774733816453,-0.2700903010896975,-0.028079857084570135,-0.18162601646765283,0.07614526751105792,-0.03396026411861168],[0.25159185216184854,0.03166025214845699,-0.22363105572648956,0.29618638597469327,0.2587916576617122,0.0553221786049996],[0.03173574646061447,0.1406026858368237,-0.03388874397025325,-0.008631966301877557,0.2071233224524781,0.3071889385606725],[-0.01526042339375895,-0.2478202010447575,-0.06887903931348921,0.052858402494064795,0.053722209919649135,-0.06791762956503668],[-0.16575546200865726,0.23082150407600063,-0.11497556883141352,0.3240986273773819,-0.16707686653618078,0.1445689597350123],[0.26661290099501395,-0.1618402061874271,-0.4808718722953077,0.10886931378260249,0.36269931846709513,-0.00885047292542609],[-0.18573386769683534,0.16731401144434713,-0.12891995271901052,0.0947950681075893,-0.23144672613401757,-0.20719890137221988],[-0.15342555750942358,0.0022963577306698755,0.41366034059303647,-0.17348768780109292,-0.24534001825880988,0.13911096760763533],[0.24492502525268442,0.19915701282112025,0.13957738570729727,0.2381707221228746,0.05819035691017044,-0.14856224837142543],[-0.1483910495729262,0.22711731098099033,0.2679033478072747,-0.20341196726204777,-0.06919061607730351,0.09933509181033531],[-0.02126802153292618,0.09038261718966416,-0.017879996844112987,-0.1333963190896796,-0.2884888802195432,0.2011214674060108],[-0.19928608947142776,0.09446390253021848,-0.09175513356929894,0.19054052387172735,-0.0939392730863433,-0.07179224960966267],[0.032860440584897524,0.049452031585217854,-0.13683295586088115,0.20785255216358606,-0.1471005301381881,-0.09836906601289942],[-0.1725716186010142,0.04265723708073794,-0.1424874316167191,-0.00270401750321821,0.21946232229612708,-0.149160689367023],[0.37603938375799373,0.022785591133694275,0.033177087530782114,-0.1699542768927298,-0.36886301395840815,-0.07203140745734847],[-0.07891448370064322,0.08400124314064927,-0.0620271571858753,-0.1766731107934372,0.029738729980591825,-0.015209626827921555]],"b1":[0.02322732101743351,0.07289159869146077,0.13428134230742605,-0.045504280336342746,0.06011780043152751,-0.021762943329171204,-0.007767989068672786,0.07297877221817035,-0.01707744218951068,0.025069917068501313,-0.03080593083248767,0.003501681477925003,0.046676717497490555,-0.02827099393027879,0.010624256796938878,0.02992241031536012,-0.016916520369353198,0.034937600740589526,0.0012737595976834095,0.012892277627325345,0.03426731421729366,0.015447609582585047,-0.022158110016312883,-0.008218698944996229],"w2":[-0.5840674361171037,0.05182988412702903,-0.4522878576867682,-0.29323393585627766,0.3611959805754435,-0.0847395219724829,0.12162905533339136,-0.2810571940478179,0.02553346343348914,0.0652893797394789,-0.1408945981261921,-0.05715791019074048,-0.4206198160620566,0.47014514192218787,-0.12287990588557811,0.48178992201866855,-0.13438829510291742,0.14661878411883472,0.047647848545967784,-0.12144603374224948,-0.15136201612458008,0.23918032108913953,0.39179857639686144,-0.06041414751811611],"b2":0.12130150382939762}